{"weights":[[[-0.38824072708458157,0.552048538508778,-0.8844296835668386,0.6746726951506515,-0.8079312510482299],[0.9645860393033427,0.8134382239505651,0.648426877478818,-0.34608144293508797,-0.5228635059917395],[-0.007984714464223249,-0.6822979732363331,-0.034661604741716964,-0.41050747536038296,-0.609558906023746]],[[0.6067063335588299,-0.5281016236751,0.24019076048634525],[-0.8889068985627915,0.9180364075067662,0.6684039257611266],[0.21804422029211873,-0.7582619029843976,0.5742524017571955],[-0.5341320696181003,0.8638504903563077,0.2223771634909799],[-0.14994298206172005,-0.4834688531342251,-0.9636471551031058]],[[0.9484142083760911,0.7263993867305149],[-0.057957971816533546,-0.6570268808110615],[0.8515113851562015,0.7125610833536516]]],"biases":[[[0.5285483639629278,-0.038428954648504626,-0.14218235924861544,-0.1972897045478999,-0.7906093687228638]],[[-0.5651699351332286,-0.20029311314119552,-0.7615725863531404]],[[0.8210027885299851,0.6114801408857027]]],"layer_sizes":[3,5,3,2],"layers":[[[0,0,0]]],"non_activated_layers":[]}