{"weights":[[[-0.5542981114128217,0.7004424315046321,-0.7183887844119383,-0.18795451497741744,0.7949766775119458],[-0.1549328177658207,-0.6083522772268192,-0.29535513266478614,0.7433900825506947,-0.7744901001008972],[0.3022207163653237,-0.6767730885240207,-0.11249821585002155,-0.5953054681087735,0.7727626966904588]],[[-0.5968246971030842,-0.5540988529396992,0.7233935458019587],[0.5889085900278705,0.03502057470376447,-0.3237861214772223],[0.21418875237399443,0.07221751156383494,0.21890920862113925],[0.9535752524684618,-0.15631650810834677,-0.02281039632925933],[-0.10601120549989673,0.39095294926105373,0.9173778664020118]],[[0.5910288817885679,-0.9576281561665991],[0.6465080738151615,0.3243659026169613],[-0.20816094557030823,0.6389916482329588]]],"biases":[[[0.8374238091205567,-0.5882880687856549,0.21071466016611543,-0.6624525124330787,0.16907415729391617]],[[-0.9665168813418055,0.7439709712424913,-0.8226668023895594]],[[0.9947884326507301,0.5748660120622545]]],"layer_sizes":[3,5,3,2],"layers":[[[0,0,0]]],"non_activated_layers":[]}