{"weights":[[[-0.7681561250756742,-0.4570381550456803,-0.21904197597296501,-0.5986723886549807,-0.99141780982831],[0.6687616552219406,-0.8730775744615975,0.28240999866108246,-0.2201875131361832,-0.056477969269758024],[-0.3299299923440459,0.6065703193076919,0.8186230471359941,-0.9767514509583024,0.07499113330352643]],[[-0.6362311305337898,-0.9451682720521213,0.8397687674485159],[0.6693645958396564,0.5530525295442889,-0.35095547254897774],[0.02538424351887689,0.8122711238867149,0.8091947138049118],[-0.8339494976088536,-0.2371625686544046,-0.7122596361525204],[0.46964619215593145,-0.8587466435322757,0.8316240913907229]],[[0.889127296200865,0.5769943206385636],[0.870571777532629,-0.00953665271088278],[0.4068398961642045,0.8861511553744922]]],"biases":[[[-0.37715444603997794,0.8623516746695162,0.23058748299160958,0.32010657483585525,-0.32065844940167537]],[[0.3696367166210123,0.8488583828020366,0.5613374099170392]],[[-0.05556389056265774,0.3988406631885119]]],"layer_sizes":[3,5,3,2],"layers":[[[0,0,0]]],"non_activated_layers":[]}