{"weights":[[[-0.7657970197391076,-0.45693995272403987,-0.21433322749072292,0.19323588549958087,-1.0007426654159781],[0.24455140261494085,-0.9023785930136929,0.291877721860464,-0.21991844798014817,-0.05591911219413005],[-0.328259684722514,-0.24216259922262254,0.829022087892772,0.7201363098675342,0.07615545988642813]],[[-0.6375490642061693,-0.9522982134254139,0.5864532590159581],[0.6759522220914909,0.5358430441352409,-0.920221495639305],[0.02496541081118521,0.8871119493436778,0.8289592667870752],[-0.8036235442608546,-0.8182442780711701,-0.6891836803398239],[0.47565084299445526,-0.8314562624161272,0.8401327368115734]],[[0.918732207397463,0.5888793192313126],[0.8445330603557403,-0.009185853792612433],[-0.41593863178366497,0.9810402260429161]]],"biases":[[[-0.3727229809918099,0.8643085189116588,0.23025217791517613,0.3213956700043997,0.5136689046398841]],[[0.36982685877089694,-0.44711190643026716,0.6073750001377748]],[[-0.5471521884808268,0.3930261550537643]]],"layer_sizes":[3,5,3,2],"layers":[[[0,0,0]]],"non_activated_layers":[]}